100 10
76 -0.5806448 0.8119594 -0.16669482 -0.1064127 0.4540694 -0.08615547 0.7209677 -0.46116036 -0.6083519 -0.19715708
41 -0.56075805 0.741915 -0.14842394 -0.030243633 0.42533222 -0.084553495 0.80416787 -0.41334367 -0.61805767 -0.26229402
74 -0.5756419 0.7666691 -0.18452422 -0.125258 0.44660828 -0.11801224 0.7751619 -0.4551428 -0.55195105 -0.2701634
21 -0.6076568 0.80259675 -0.156106 -0.033815797 0.42069107 -0.080065675 0.7605208 -0.4073604 -0.56529886 -0.25665408
38 -0.57096803 0.7582965 -0.22225189 -0.030699471 0.41971463 0.00163871 0.812536 -0.38180476 -0.53928155 -0.27292317
8 -0.61044174 0.76246655 -0.21329604 -0.12495984 0.38219106 -0.044412754 0.81349725 -0.3907897 -0.61668575 -0.24163678
36 -0.5936357 0.81570876 -0.21161938 -0.053998623 0.38507044 -0.12080753 0.77822393 -0.38763747 -0.5563548 -0.2716849
91 -0.6220605 0.802915 -0.18786882 -0.1268291 0.4074814 -0.10929835 0.7593494 -0.4279622 -0.5453727 -0.1816635
87 -0.6201453 0.80550146 -0.22767313 -0.091261186 0.44425476 -0.0872431 0.7098093 -0.4276866 -0.54120415 -0.2344253
83 -0.5226147 0.8404695 -0.15725116 -0.10704355 0.41878068 -0.030989015 0.7102132 -0.4374382 -0.6192242 -0.23639417
14 -0.5525435 0.81382865 -0.21177137 -0.095230475 0.40446004 -0.061091807 0.7560238 -0.42504397 -0.5776503 -0.24755684
9 -0.62993246 0.7771495 -0.19267926 -0.097356096 0.385439 -0.01792708 0.74426675 -0.4084208 -0.5954174 -0.27354497
37 -0.57183564 0.76585823 -0.21310838 -0.120508224 0.37648833 -0.05114886 0.7294462 -0.47229192 -0.61829615 -0.31028563
15 -0.61034954 0.794704 -0.2144162 -0.14608538 0.46169183 -0.053929176 0.7198038 -0.43382895 -0.54236716 -0.19006269
60 -0.62162906 0.8530038 -0.20271847 -0.06594482 0.37883902 -0.12726147 0.71227354 -0.36723784 -0.5535459 -0.25236928
24 -0.52354705 0.7844722 -0.23840326 -0.083027974 0.43222368 -0.041098963 0.74683475 -0.43556103 -0.59117407 -0.26311493
29 -0.53060377 0.820986 -0.16671392 -0.13594489 0.38539046 -0.12225358 0.7819661 -0.43818033 -0.5189079 -0.31054607
49 -0.62578493 0.75045925 -0.23553368 -0.12357623 0.49118438 -0.10610711 0.71316624 -0.43978086 -0.5767536 -0.30851695
18 -0.6126209 0.74927425 -0.22275986 -0.032607917 0.462997 -0.08047652 0.7880045 -0.39662102 -0.53307885 -0.23053366
17 -0.5180284 0.81524366 -0.14643851 -0.059378505 0.47978994 -0.051883306 0.7718978 -0.40738508 -0.5799746 -0.1811269
84 -0.56065077 0.8071752 -0.14910558 -0.05147518 0.4011862 -0.098072074 0.7987044 -0.45033965 -0.5432942 -0.18055637
81 -0.6042412 0.7647734 -0.20474175 -0.06936901 0.49828893 -0.12430044 0.7320166 -0.38170347 -0.56819123 -0.31380627
70 -0.5641498 0.7617555 -0.16159043 -0.09029338 0.4561088 -0.054354027 0.77093196 -0.39115992 -0.6164526 -0.28267053
96 -0.6486473 0.7438949 -0.21141483 -0.072906904 0.4288967 -0.014796396 0.81367093 -0.3954316 -0.5202529 -0.19308151
73 -0.6411907 0.7702224 -0.19243617 -0.09030865 0.3861664 0.022544477 0.80114216 -0.41923353 -0.5683631 -0.16961452
47 -0.5897176 0.80853844 -0.17347135 -0.07206952 0.4752103 -0.100733645 0.7750165 -0.39752388 -0.4945594 -0.23569773
7 -0.61817783 0.834088 -0.23685277 -0.11367402 0.3943752 -0.0051273433 0.790134 -0.41354793 -0.5216456 -0.18822335
89 -0.52672076 0.83837223 -0.24324378 -0.047236335 0.39770657 -0.032003384 0.7306909 -0.40609643 -0.6292347 -0.28909308
32 -0.5737273 0.82268476 -0.15804656 -0.09850903 0.4765516 -0.06389172 0.7788008 -0.3574159 -0.5135138 -0.25089976
75 -0.56914955 0.7895612 -0.17484926 -0.08230415 0.46497333 -0.12207745 0.80308485 -0.37618843 -0.5471638 -0.27162609
59 -0.65879864 0.7578663 -0.24343383 -0.08067164 0.40511447 -0.12408834 0.7551451 -0.35125604 -0.5935781 -0.21151528
2 -0.6041445 0.821785 -0.1425978 -0.09493941 0.46016788 -0.115508415 0.75701606 -0.3731859 -0.49711242 -0.24655949
31 -0.6239891 0.71296006 -0.15587854 -0.09227909 0.4581126 -0.045511905 0.7816087 -0.38035986 -0.61905015 -0.2917658
55 -0.5500855 0.80320704 -0.15479407 -0.119684294 0.41374502 -0.08665433 0.76245457 -0.4582339 -0.6233035 -0.18437372
92 -0.53317523 0.7657376 -0.22278996 -0.08737593 0.4503132 -0.026403293 0.75509304 -0.43821386 -0.6266578 -0.28836966
6 -0.6254488 0.7450183 -0.15051189 -0.10071491 0.43413442 -0.1024174 0.73025596 -0.4402317 -0.60007185 -0.23772529
16 -0.6141658 0.8355174 -0.15603524 -0.029286025 0.49359116 -0.044493645 0.71100986 -0.41151902 -0.56921446 -0.17345895
20 -0.5234699 0.78540313 -0.20395875 -0.1466607 0.48958164 -0.140901 0.7511088 -0.40656257 -0.5443888 -0.31748086
56 -0.5972184 0.7848278 -0.2245976 -0.057080448 0.35376635 -0.09761943 0.77090687 -0.41927385 -0.5699515 -0.23697273
57 -0.5889225 0.76554394 -0.18783501 -0.04516381 0.45638937 -0.070009574 0.7557947 -0.44100428 -0.5345073 -0.28393075
100 -0.62868613 0.7823506 -0.2272242 -0.13288112 0.38732994 -0.021645656 0.71008986 -0.3771343 -0.61900616 -0.28417838
22 -0.5830469 0.8528066 -0.1782771 -0.09169388 0.40654618 -0.00633269 0.74563503 -0.4601544 -0.5381812 -0.2328481
79 -0.5805499 0.78448933 -0.16957782 -0.03856995 0.4929722 -0.047888085 0.7740597 -0.40054893 -0.55882543 -0.20561977
34 -0.5014822 0.78885823 -0.22599341 -0.09212374 0.4410631 -0.10327898 0.8003588 -0.4427007 -0.58595365 -0.21031594
3 -0.57227826 0.80061054 -0.19563502 -0.08019046 0.3941909 -0.027068727 0.7682541 -0.3786458 -0.59143823 -0.23960063
4 -0.52730376 0.85230243 -0.24927282 -0.1459463 0.38018784 -0.055536028 0.7779882 -0.3956771 -0.5475922 -0.24560907
40 -0.60905343 0.8302187 -0.23462212 -0.10384968 0.4318125 -0.06979453 0.70460254 -0.4019906 -0.5461539 -0.20337315
26 -0.5520707 0.8149892 -0.15713039 -0.10927793 0.38076997 -0.09456494 0.7815738 -0.46537426 -0.54787356 -0.29697895
10 -0.55124164 0.8018443 -0.2536837 -0.10657845 0.39823955 -0.027937649 0.7744643 -0.4318146 -0.54254115 -0.22734234
80 -0.5702505 0.72896135 -0.16146682 -0.011259382 0.46275598 -0.053381883 0.78741974 -0.47313783 -0.5917135 -0.19664341
67 -0.52817035 0.82140034 -0.12567139 -0.11440203 0.4337169 -0.077410944 0.7611071 -0.43296024 -0.60172343 -0.26041448
85 -0.5859764 0.8144893 -0.13901271 -0.04457773 0.4627043 -0.06447931 0.74577856 -0.42673862 -0.57300204 -0.2640028
88 -0.5144325 0.82731664 -0.22908175 -0.066173255 0.4706284 -0.04689803 0.7766274 -0.4161359 -0.5336117 -0.2494273
42 -0.57606834 0.803861 -0.24122924 -0.06009551 0.41552255 -0.07406643 0.74834925 -0.4188639 -0.5881482 -0.2466292
71 -0.58078665 0.8205665 -0.170607 -0.12645312 0.4288168 -0.025820892 0.7630443 -0.43813914 -0.53615314 -0.22099657
27 -0.6109417 0.78702444 -0.1588268 -0.08504782 0.39252144 -0.022589957 0.76601535 -0.42696643 -0.61673564 -0.22156928
54 -0.5654846 0.7599636 -0.24065982 -0.083800755 0.43114167 -0.07712563 0.76122683 -0.4045975 -0.5813218 -0.30198616
11 -0.54650307 0.83300304 -0.16461706 -0.06415514 0.38985494 -0.13362655 0.7527272 -0.37514418 -0.59517324 -0.29471615
66 -0.58052826 0.77576506 -0.15663195 -0.06852529 0.43928048 -0.020320553 0.73306495 -0.44686633 -0.5762731 -0.2825209
1 -0.5381111 0.8188146 -0.1421865 -0.058553338 0.44086045 -0.12679717 0.76122624 -0.44136167 -0.5921621 -0.23749082
95 -0.6501724 0.8081824 -0.18560438 -0.052522745 0.37095177 -0.06114402 0.7093298 -0.45075256 -0.5786847 -0.1694572
25 -0.5790233 0.8310819 -0.21796459 -0.14683077 0.37595764 -0.042404737 0.7424451 -0.45798245 -0.5503126 -0.23812681
50 -0.56070566 0.81050926 -0.19318585 -0.04622389 0.39689133 -0.08858206 0.7458302 -0.3983717 -0.6197769 -0.25131407
65 -0.61403704 0.83296305 -0.18464959 -0.040849946 0.4161455 -0.04553003 0.7259084 -0.396016 -0.61341953 -0.1792886
64 -0.6726761 0.7459971 -0.19828121 -0.07593376 0.3865158 -0.008833378 0.7893173 -0.3944881 -0.5220375 -0.23659807
68 -0.5750725 0.82743776 -0.16146567 -0.100854225 0.38122994 -0.11474419 0.7877256 -0.37583855 -0.53710216 -0.2189817
93 -0.5629525 0.8325823 -0.16505598 -0.12492523 0.3884828 -0.1186539 0.75941116 -0.39839104 -0.596525 -0.21493301
97 -0.5864939 0.7661971 -0.24275286 -0.13836509 0.44693518 0.010107299 0.7307197 -0.44361457 -0.57931423 -0.3050101
78 -0.6197105 0.8269383 -0.2180434 -0.06661121 0.46329403 -0.09547798 0.6895385 -0.32679862 -0.6361203 -0.17386967
39 -0.5665647 0.7751022 -0.20608394 -0.15319914 0.3974256 0.011162074 0.7606524 -0.45456982 -0.6089004 -0.24808708
13 -0.53689075 0.79748046 -0.22383405 -0.083541185 0.45228612 -0.147052 0.745553 -0.44018418 -0.58995605 -0.24065894
69 -0.6018933 0.82163626 -0.2054166 -0.08025362 0.3857067 -0.0756451 0.7745753 -0.36009216 -0.61677593 -0.16070051
23 -0.5677628 0.8492192 -0.1966188 -0.13558027 0.40151232 -0.003364982 0.76855415 -0.38439417 -0.5882859 -0.19230565
99 -0.5520447 0.8144169 -0.2369125 -0.09426265 0.44393757 -0.068564266 0.6915411 -0.4777555 -0.5351109 -0.2887405
63 -0.61690867 0.8105944 -0.13545714 -0.11775563 0.46698695 -0.025838722 0.705953 -0.43650776 -0.5526849 -0.27809435
86 -0.57823086 0.7963849 -0.20503935 -0.09082955 0.45104402 -0.08954589 0.7086904 -0.38174537 -0.6113407 -0.24259704
72 -0.5636297 0.8156045 -0.16916561 -0.12035586 0.4203639 -0.03031957 0.7755488 -0.4286529 -0.54557 -0.18769856
61 -0.6163549 0.7584687 -0.24223949 -0.08608201 0.42375395 -0.09867424 0.7537578 -0.46851337 -0.5418796 -0.22095557
33 -0.61059535 0.7595203 -0.23980366 -0.032233108 0.3914798 -0.0076934155 0.75673854 -0.42200616 -0.61932313 -0.19934396
94 -0.5998523 0.79670817 -0.20089656 -0.032973714 0.4228929 -0.0356891 0.7682455 -0.36658052 -0.56358874 -0.27281433
58 -0.58396846 0.81769216 -0.2344758 -0.06646888 0.38746968 -0.04415623 0.8012367 -0.38220736 -0.5849895 -0.21083745
12 -0.5765322 0.7805298 -0.20471478 -0.06434826 0.41908777 -0.100768715 0.80194294 -0.38140294 -0.52639884 -0.2886355
62 -0.551802 0.8364909 -0.16901256 -0.051013026 0.3959494 -0.021180429 0.7774974 -0.48395443 -0.5628983 -0.21378972
52 -0.6317949 0.7876901 -0.2312218 -0.1334366 0.434806 -0.042139657 0.7319199 -0.39777735 -0.57265663 -0.2735138
77 -0.58734244 0.80100965 -0.20866212 -0.09407971 0.44796896 -0.020989597 0.73121536 -0.3905046 -0.60759294 -0.25297138
35 -0.58135164 0.7921056 -0.17676847 -0.08079814 0.43825904 -0.052327532 0.7355578 -0.3478151 -0.6025333 -0.26882604
30 -0.5874314 0.77611345 -0.19511898 -0.031636707 0.43698946 -0.10598433 0.76311034 -0.363742 -0.6557177 -0.20368178
46 -0.6151056 0.7825053 -0.20985202 -0.12194165 0.37212074 -0.068534546 0.7594467 -0.4540434 -0.56553394 -0.23120992
90 -0.5673019 0.81088626 -0.1591115 -0.1251243 0.47787526 -0.09413453 0.76374346 -0.37100816 -0.5610004 -0.2646831
82 -0.5247026 0.7948824 -0.19396949 -0.0284713 0.46098003 -0.019709203 0.74300545 -0.43684793 -0.6192863 -0.255748
51 -0.5689947 0.82257223 -0.2307054 -0.06142369 0.35864934 -0.09869003 0.74584943 -0.440933 -0.60194856 -0.18355423
28 -0.5928147 0.79537076 -0.23058912 -0.14141978 0.36663225 -0.0019398943 0.7428205 -0.42780277 -0.59715474 -0.1733452
48 -0.54880446 0.8279307 -0.14914533 -0.065095335 0.44531518 -0.11984633 0.7260323 -0.43436694 -0.57871956 -0.2555222
19 -0.60450983 0.8648337 -0.19539124 -0.08321093 0.42153424 -0.08853662 0.7310828 -0.36893168 -0.5796671 -0.2433732
43 -0.5500578 0.8337531 -0.15144266 -0.03014124 0.37738466 -0.0858676 0.7995917 -0.45282474 -0.52607816 -0.2469557
45 -0.5398753 0.7972488 -0.16983801 -0.13550214 0.39127842 -0.09501515 0.7959193 -0.41442746 -0.56119144 -0.2671832
98 -0.58567506 0.783717 -0.17919889 -0.1264889 0.48989594 -0.053703986 0.74306566 -0.42066824 -0.54665226 -0.25280023
44 -0.5943542 0.760122 -0.15004537 -0.015638659 0.37296364 -0.09954952 0.80395323 -0.45031363 -0.5326372 -0.30319518
53 -0.56400883 0.8336916 -0.15110329 -0.15631466 0.36968574 -0.10350195 0.7725014 -0.46193925 -0.52269614 -0.22754754
5 -0.6226456 0.74188477 -0.17091225 -0.04858539 0.4364067 -0.0787448 0.73866785 -0.40521556 -0.60507417 -0.24935324
