100 10
77 -0.08844408 -0.06493431 0.15345214 -0.43800962 0.26011184 -0.45829454 -0.21991067 0.13838331 0.3015602 1.3033949
19 -0.13947578 -0.04754313 0.14702424 -0.42377484 0.29499248 -0.41458252 -0.20627412 0.07740783 0.34104782 1.2940669
69 -0.12683293 -0.042930372 0.11503115 -0.39194405 0.3394748 -0.47269282 -0.21087916 0.06476285 0.30267805 1.279028
28 -0.074505985 -0.046602663 0.11917207 -0.39840966 0.3110189 -0.4396702 -0.18333074 0.09629859 0.3492503 1.3049376
2 -0.074742995 -0.07071694 0.090764716 -0.42710006 0.23556864 -0.4687837 -0.17373724 0.07893267 0.320274 1.3174212
68 -0.10473681 0.0016096211 0.14582197 -0.3662901 0.29839337 -0.48098654 -0.12989448 0.07720151 0.36938772 1.2892889
15 -0.09762789 -0.023106249 0.083089344 -0.4354548 0.34782374 -0.4752112 -0.12053715 0.09707116 0.36777058 1.2769338
44 -0.13488168 -0.08878615 0.15361342 -0.43503702 0.23362902 -0.46843955 -0.1792428 0.119894035 0.32385957 1.2873744
92 -0.11907069 -0.064700045 0.12337994 -0.44263056 0.25272012 -0.47090113 -0.1785669 0.14752893 0.29161033 1.2980372
30 -0.08544244 -0.05168288 0.095711984 -0.36488143 0.32661706 -0.4784518 -0.21031834 0.08773548 0.33689648 1.2970138
26 -0.104407266 -0.028451448 0.06803165 -0.36919165 0.33141172 -0.40300325 -0.16138671 0.10171905 0.29803714 1.3360028
79 -0.09262291 -0.085843325 0.07760662 -0.41324085 0.32074067 -0.4564147 -0.19036126 0.055193983 0.39088085 1.2803649
66 -0.14223284 -0.05814021 0.11927058 -0.39998093 0.35841036 -0.45014825 -0.19111696 0.03401453 0.3286026 1.2946929
76 -0.10767978 -0.056519013 0.060824953 -0.36255667 0.29862332 -0.4456844 -0.15595444 0.13361333 0.3302678 1.3059721
55 -0.12721555 -0.027309388 0.095524274 -0.36673632 0.2951047 -0.4512149 -0.17106195 0.11819618 0.3019003 1.3283857
90 -0.09053642 -0.010211413 0.13201602 -0.4240947 0.3218059 -0.4547904 -0.17988373 0.036934722 0.37857363 1.2964777
7 -0.0721233 -0.015357052 0.06379955 -0.44569147 0.25861543 -0.43614337 -0.17605802 0.13247718 0.27673703 1.3204595
25 -0.09147633 -0.025715718 0.15381105 -0.37775669 0.3073487 -0.415465 -0.15878558 0.053231 0.33903205 1.3204136
75 -0.17691784 -0.007729368 0.089453444 -0.40808555 0.31093886 -0.38745883 -0.19926429 0.12803078 0.33582836 1.3215486
96 -0.14613335 -0.078673646 0.13780606 -0.41486326 0.28362975 -0.4656805 -0.15115249 0.13366807 0.3065472 1.2846794
18 -0.08061347 -0.08072237 0.14635181 -0.4163683 0.3201592 -0.4764118 -0.16810475 0.08654334 0.35008475 1.2673248
93 -0.16614012 -0.034100067 0.08995075 -0.37756538 0.2684743 -0.46935633 -0.18418539 0.09327799 0.3224226 1.3088293
27 -0.08119517 -0.031030089 0.16796327 -0.45091462 0.27088684 -0.4707039 -0.19840837 0.07191732 0.275625 1.2951956
51 -0.15409386 -0.09323368 0.06722466 -0.417546 0.28381622 -0.41344604 -0.18709373 0.09668444 0.37643367 1.2887137
4 -0.110921696 -0.035036903 0.14402099 -0.42067334 0.28160438 -0.48959944 -0.19787224 0.045018338 0.37492213 1.2689658
14 -0.06419952 -0.03164441 0.15111595 -0.42189494 0.27188632 -0.4582402 -0.16943955 0.070027545 0.34436354 1.3058964
11 -0.1780931 -0.08413604 0.14683239 -0.40940848 0.26694745 -0.42357358 -0.12923332 0.090316996 0.30095053 1.3264111
56 -0.14021309 -0.081841365 0.14799634 -0.41813597 0.25075603 -0.42455268 -0.1656314 0.112211205 0.3142155 1.3122194
0 -0.14052102 -0.03950074 0.090208456 -0.41555265 0.2921439 -0.4116385 -0.15492925 0.12991 0.2796725 1.3284659
20 -0.08015764 -0.03935208 0.08507141 -0.43822056 0.26018238 -0.48498055 -0.15282777 0.06266133 0.2876805 1.331111
53 -0.13361801 -0.035856817 0.13549615 -0.4183038 0.29639953 -0.43060806 -0.18625472 0.08327785 0.3333632 1.2983388
38 -0.13262649 0.0040629394 0.06672856 -0.41551927 0.29363868 -0.44170156 -0.18075657 0.10202034 0.30359992 1.2990309
52 -0.14598608 -0.02575417 0.14774805 -0.4255015 0.3198916 -0.41608062 -0.20636246 0.050587922 0.3101482 1.3026086
72 -0.083736755 0.0003935163 0.07497256 -0.40471828 0.30721644 -0.44080976 -0.16490023 0.08727627 0.3799749 1.2849799
13 -0.06300513 -0.0095234355 0.08341665 -0.4446343 0.29398054 -0.39614075 -0.15180893 0.13804865 0.37171206 1.3036164
41 -0.1526815 -0.0056917276 0.13806397 -0.39735183 0.31390792 -0.42566276 -0.22017376 0.07778163 0.31100282 1.2922623
31 -0.15189578 -0.053771406 0.123566896 -0.38380668 0.29512936 -0.5030489 -0.19688377 0.051171254 0.36775225 1.2695858
16 -0.141906 -0.052164398 0.1340754 -0.42258438 0.2710412 -0.487272 -0.21274275 0.031566076 0.33704025 1.2710607
6 -0.09099199 -0.042051718 0.075375706 -0.45777872 0.27292225 -0.41357145 -0.18213981 0.059498157 0.3893831 1.295739
85 -0.08113836 -0.03536765 0.06407178 -0.36988363 0.2941771 -0.4251673 -0.15479407 0.10941169 0.35160413 1.3284554
98 -0.06147698 -0.08504521 0.11684279 -0.41797954 0.27586168 -0.49929646 -0.21068904 0.090027004 0.2894871 1.3036981
87 -0.14614293 -0.06065422 0.06331518 -0.37140745 0.27874804 -0.4913578 -0.1417575 0.09025618 0.36626324 1.294885
70 -0.16669413 -0.085625865 0.14146443 -0.37822303 0.33843645 -0.43392843 -0.16825178 0.13660759 0.35833296 1.292293
89 -0.13314283 -0.06512578 0.14505802 -0.44894502 0.24434336 -0.42688757 -0.21900804 0.04728741 0.38251585 1.2958742
80 -0.1339627 -0.0047042225 0.0927431 -0.37627706 0.30680865 -0.41947153 -0.21520412 0.1322454 0.33611223 1.3124061
81 -0.08707883 0.008038573 0.13743298 -0.36711714 0.3001446 -0.43320173 -0.22167434 0.053310744 0.3445987 1.320254
63 -0.082257144 -0.027729472 0.120514445 -0.37316316 0.27906826 -0.42670557 -0.20583744 0.042455185 0.35083255 1.316555
40 -0.11205083 -0.096394956 0.08138646 -0.41735792 0.29894975 -0.42765436 -0.18309288 0.030089973 0.35518244 1.3048337
94 -0.12009126 -0.09275387 0.089574285 -0.37384522 0.3600373 -0.43696293 -0.16057797 0.09567958 0.2982109 1.3100806
33 -0.11485615 -0.020799464 0.10114863 -0.40921965 0.25208837 -0.3810047 -0.17135687 0.09820117 0.33533022 1.3359458
23 -0.13162692 -0.06536517 0.12396889 -0.3982456 0.34188458 -0.47092295 -0.20190684 0.13837102 0.29303232 1.3014325
65 -0.07681086 -0.0727168 0.13574874 -0.39550278 0.28653958 -0.45122185 -0.15531443 0.08223938 0.34913102 1.296886
17 -0.07943126 -0.013350456 0.12322506 -0.37597877 0.24799767 -0.49762788 -0.16301572 0.12743385 0.284804 1.3264855
24 -0.08637174 0.0063464777 0.14542112 -0.36160153 0.3369746 -0.4360914 -0.16662255 0.02995017 0.3867047 1.304258
39 -0.16191594 0.012854088 0.11971517 -0.37299028 0.30174088 -0.46754888 -0.13699508 0.13353367 0.3339304 1.3154082
59 -0.11073452 -0.024754232 0.06774375 -0.39368626 0.26271474 -0.51676136 -0.1638629 0.06144363 0.33506587 1.2978325
42 -0.15561229 -0.08455378 0.06854464 -0.3545798 0.26163277 -0.4898315 -0.23191383 0.102241464 0.34374383 1.3056402
61 -0.11168523 0.010449985 0.09650594 -0.34823534 0.32937062 -0.47341678 -0.17423925 0.12718748 0.34850845 1.2960708
62 -0.08253805 -0.08165749 0.11854516 -0.4389871 0.2949879 -0.39354268 -0.20087007 0.05807823 0.3238263 1.3136237
99 -0.12912025 -0.012454846 0.12968957 -0.38667688 0.3304836 -0.41943642 -0.1609198 0.13843623 0.3241625 1.315055
78 -0.11243255 -0.025047986 0.14155197 -0.4116698 0.33874232 -0.40638983 -0.19685327 0.08554258 0.34220597 1.3020303
57 -0.09585775 -0.014897548 0.077286884 -0.4415533 0.31372133 -0.49087214 -0.1310787 0.099067934 0.30352157 1.2996296
83 -0.1653952 -0.06198023 0.095929064 -0.41474795 0.34722918 -0.46788123 -0.22425814 0.058634922 0.38723 1.2632296
95 -0.071878456 -0.028306982 0.13624825 -0.4107033 0.2225058 -0.4617753 -0.23270357 0.074602626 0.26996893 1.3163666
54 -0.14904058 0.001098841 0.16917121 -0.4362409 0.33987674 -0.4626644 -0.21402943 0.09103725 0.34567976 1.2567182
49 -0.12794499 -0.071653254 0.13331749 -0.4399477 0.33159548 -0.41227695 -0.13059112 0.081151195 0.35158914 1.2922648
73 -0.12940702 -0.079931945 0.06021487 -0.41883573 0.26872218 -0.4778318 -0.20911182 0.057838004 0.3810302 1.2662884
36 -0.1405145 -0.0198923 0.1328857 -0.40831387 0.24507904 -0.48324704 -0.11604008 0.0610064 0.288791 1.3114405
21 -0.132354 0.005074984 0.08656384 -0.34961414 0.30351296 -0.5001519 -0.1279598 0.038915407 0.34497112 1.310024
1 -0.16081102 -0.08316575 0.13132663 -0.37696835 0.3086705 -0.4326763 -0.20015372 0.052444544 0.27017328 1.3097984
35 -0.12570255 -0.074969664 0.16579 -0.4101372 0.28637904 -0.40166864 -0.13895306 0.026017072 0.30923456 1.3269529
5 -0.067378655 -0.008165411 0.08555638 -0.40791744 0.30073902 -0.42914805 -0.18281086 0.12614353 0.2981899 1.3178232
97 -0.15231809 -0.043825738 0.1117509 -0.35052377 0.23591222 -0.4807704 -0.149977 0.12229218 0.38606995 1.3137581
43 -0.071529254 0.00446451 0.07744086 -0.3773304 0.29967406 -0.39211616 -0.13689907 0.07229539 0.36362195 1.3361696
10 -0.05307278 -0.058738556 0.12213161 -0.4655115 0.31466836 -0.4772934 -0.14972138 0.13338459 0.28395593 1.2952361
58 -0.14809875 -0.059633046 0.06976369 -0.4167845 0.27794325 -0.40506828 -0.19391875 0.12750904 0.3482172 1.2995391
64 -0.13723443 -0.07734205 0.09727571 -0.43847674 0.25124085 -0.44644353 -0.21595097 0.12806098 0.2980801 1.3188157
67 -0.10505514 -0.096976325 0.059005488 -0.3717795 0.22961226 -0.49741665 -0.15774243 0.12245059 0.313802 1.3171916
60 -0.10099081 0.0028036204 0.08380028 -0.40322092 0.33488873 -0.4855086 -0.12596986 0.071861394 0.3388327 1.2928082
32 -0.11217512 -0.03342892 0.12851106 -0.4446015 0.2777724 -0.49136734 -0.1421184 0.064851835 0.31260812 1.2805492
22 -0.05871308 -0.024173008 0.09931039 -0.43467775 0.25920263 -0.49297962 -0.13932477 0.06091413 0.32419357 1.285988
82 -0.10898164 -0.08091965 0.06192543 -0.39895597 0.24119422 -0.44711694 -0.22296502 0.07946493 0.31027633 1.3162632
29 -0.14016438 0.0071290783 0.08513228 -0.34576604 0.30681884 -0.41764334 -0.18624368 0.07112141 0.32943186 1.3252975
48 -0.110467896 -0.062294602 0.14000572 -0.36471242 0.32232735 -0.4031046 -0.19444112 0.028135197 0.36131468 1.3155104
84 -0.11671898 -0.031226557 0.09316881 -0.44898653 0.22648194 -0.4479683 -0.15834655 0.07007933 0.37743804 1.2879193
8 -0.1491991 -0.09359326 0.06689259 -0.4200128 0.3049066 -0.40001497 -0.21099354 0.058248162 0.27003857 1.331095
74 -0.06456585 -0.07189678 0.086372934 -0.4320697 0.30499992 -0.47486958 -0.18374938 0.04756364 0.27986428 1.2934291
34 -0.13692172 -0.060472876 0.1304289 -0.39439368 0.26788038 -0.47959575 -0.14305672 0.0271465 0.3442794 1.3148826
12 -0.15601398 -0.0295128 0.063877545 -0.42542788 0.25731772 -0.43627918 -0.13704433 0.062761396 0.36859435 1.3058789
45 -0.111396514 -0.032032356 0.078413114 -0.4044208 0.24413897 -0.45329225 -0.15482329 0.08157971 0.36517155 1.3014656
37 -0.1392093 -0.029009098 0.16141996 -0.40133226 0.26324102 -0.47818273 -0.17744909 0.09398847 0.3176921 1.306945
46 -0.13027082 -0.018340057 0.09886205 -0.42924312 0.25782 -0.46118942 -0.16290829 0.12337323 0.35634518 1.2802472
71 -0.15265466 -0.06562588 0.10054059 -0.35585913 0.32009673 -0.43829334 -0.18893448 0.085755 0.28310663 1.3208055
91 -0.08018166 -0.019787258 0.12665927 -0.34540045 0.2720796 -0.47357497 -0.181256 0.11164582 0.30214968 1.3237871
3 -0.1112099 -0.03437946 0.11958935 -0.4426354 0.29452085 -0.4081952 -0.124450065 0.113922685 0.30398697 1.3129826
86 -0.14817974 -0.08124915 0.14348565 -0.42513493 0.28825638 -0.38502723 -0.11776285 0.044464506 0.36234522 1.3024992
50 -0.12451582 -0.09128905 0.07934339 -0.39742917 0.29895368 -0.43483856 -0.13136494 0.09479561 0.3016986 1.3269562
9 -0.16307876 -0.07830389 0.08786557 -0.40397817 0.32229453 -0.38673204 -0.13635072 0.11013379 0.3101766 1.3216146
47 -0.08424678 -0.048978105 0.14948945 -0.43251908 0.26651093 -0.45432413 -0.13077624 0.11104451 0.33048642 1.3065913
88 -0.10735817 -0.036394976 0.12879062 -0.42615476 0.271925 -0.40165547 -0.11447479 0.05180922 0.27781093 1.3436269
