100 10
42 -0.14481446 0.65027106 -0.15158986 0.24563687 -0.4479252 -0.8217995 -0.020260194 -0.8477557 -0.20650466 0.37517622
17 -0.15867335 0.6167792 -0.2030831 0.27822426 -0.5264037 -0.7681229 -0.015445535 -0.89095354 -0.23495883 0.28611377
31 -0.08349419 0.61586714 -0.21142823 0.29757416 -0.5578691 -0.78057426 -0.025204355 -0.8856006 -0.16557989 0.28619197
64 -0.07830408 0.6421235 -0.21388382 0.2662709 -0.47471723 -0.7991542 0.0078008226 -0.89251035 -0.18730605 0.3259924
12 -0.09784574 0.6241937 -0.16170338 0.23288524 -0.4849699 -0.7872963 0.056517627 -0.91590726 -0.17713042 0.35042536
81 -0.11291659 0.6132782 -0.21641874 0.23145974 -0.57200694 -0.7694262 0.062040776 -0.88380057 -0.15085174 0.37868267
22 -0.111705214 0.6455641 -0.12055171 0.22936718 -0.53097945 -0.8291187 0.05987406 -0.87608105 -0.22197118 0.28015876
37 -0.12573236 0.5801493 -0.16481566 0.23505577 -0.5184338 -0.8179377 0.06734606 -0.8660762 -0.25171852 0.32238552
89 -0.14478686 0.5961444 -0.20943831 0.23329827 -0.5476626 -0.7995327 0.06496967 -0.89700395 -0.228365 0.27227658
94 -0.15782723 0.60672945 -0.23071483 0.26603433 -0.47661167 -0.80196553 -0.014851182 -0.8949787 -0.19369824 0.337579
8 -0.12606569 0.6093041 -0.16721444 0.29297498 -0.49665537 -0.78921765 0.008208647 -0.9013323 -0.22818573 0.30136058
69 -0.13286524 0.6371076 -0.19279718 0.22553809 -0.515209 -0.7772524 0.03891741 -0.8911852 -0.20910913 0.34857517
34 -0.099275716 0.58166575 -0.18146783 0.25094208 -0.5406724 -0.7978109 0.008163983 -0.9249509 -0.17546782 0.36386573
90 -0.15663292 0.6076659 -0.18643278 0.2936251 -0.4559612 -0.76228315 0.05302464 -0.90024996 -0.22623661 0.37401798
80 -0.10540319 0.60131013 -0.12962417 0.29275587 -0.4954648 -0.81546944 -0.009427244 -0.9002275 -0.16868757 0.28584692
59 -0.18554024 0.6298043 -0.1686311 0.20992623 -0.53343195 -0.7809654 0.03343211 -0.87951314 -0.17970663 0.3393088
35 -0.15292569 0.6346768 -0.1628107 0.22426215 -0.5205755 -0.82868505 -0.025672736 -0.88697714 -0.19414498 0.29552987
83 -0.10501878 0.6306426 -0.15905638 0.25211716 -0.53604597 -0.77408934 0.040367205 -0.85660416 -0.20036088 0.37011778
15 -0.18140703 0.6209006 -0.19161701 0.2547354 -0.49520934 -0.78774863 0.06363924 -0.870466 -0.2636653 0.32645276
26 -0.12702842 0.63694614 -0.13946278 0.28965524 -0.45064986 -0.8336198 0.054351613 -0.86465853 -0.22647963 0.3331914
93 -0.17571208 0.6076247 -0.18074949 0.29232612 -0.4978885 -0.7957244 0.0110320905 -0.8469214 -0.17870611 0.34625003
28 -0.13439286 0.5608125 -0.13078542 0.22788556 -0.51047677 -0.7907269 0.015157418 -0.95068544 -0.17363268 0.3632665
9 -0.11835872 0.57520837 -0.19641772 0.20843807 -0.47913212 -0.8407925 0.00914432 -0.91397816 -0.25243634 0.2808617
72 -0.16371354 0.5880156 -0.2288197 0.23262738 -0.5004837 -0.74966437 -0.03063267 -0.94280237 -0.25590697 0.31867477
56 -0.10591332 0.58118725 -0.1426577 0.25675946 -0.47148472 -0.77739143 0.024301779 -0.94173414 -0.19805363 0.37554863
39 -0.10763356 0.5938929 -0.15615042 0.24589592 -0.53357315 -0.821101 0.0030694406 -0.8757792 -0.25072196 0.36355594
97 -0.15123385 0.60795075 -0.20206591 0.28692108 -0.54928356 -0.7656383 0.00048082444 -0.9103799 -0.19507557 0.3241965
23 -0.076432675 0.55034816 -0.12749173 0.2554128 -0.56185544 -0.8406536 0.06147339 -0.90341264 -0.17701152 0.27669615
52 -0.15122508 0.56921023 -0.16910206 0.27155977 -0.5403785 -0.7946802 -0.028490493 -0.88814527 -0.24691848 0.3303036
7 -0.14964683 0.5725303 -0.23459916 0.29639515 -0.5290501 -0.762383 0.049409546 -0.8956715 -0.24225274 0.30352944
73 -0.111403994 0.65927446 -0.15280847 0.30091566 -0.47300166 -0.75830466 0.0008099188 -0.9128674 -0.17756392 0.2916405
38 -0.16221242 0.5590629 -0.15846096 0.22198965 -0.51094925 -0.7629586 0.019469116 -0.93872577 -0.18937553 0.33650294
74 -0.13419242 0.5900636 -0.15015364 0.32030958 -0.5084545 -0.76432335 0.026212843 -0.91023755 -0.17175606 0.3594683
78 -0.16684616 0.58303374 -0.1879793 0.23636666 -0.50340706 -0.7802855 0.052365586 -0.91567385 -0.20209321 0.36594296
6 -0.13379855 0.5520566 -0.2379778 0.22479592 -0.5097701 -0.8355366 0.054880563 -0.9227963 -0.24607256 0.28336096
95 -0.100493856 0.5677505 -0.22762446 0.24446954 -0.4544517 -0.79673046 -0.021014974 -0.9156986 -0.26243296 0.34176254
87 -0.1270471 0.63000214 -0.18028155 0.22318609 -0.45961738 -0.80005807 0.050478637 -0.90549123 -0.19029924 0.36808297
5 -0.16178147 0.63635147 -0.17801331 0.20353383 -0.48497057 -0.7827636 0.06876853 -0.9300539 -0.23757398 0.28850293
66 -0.11072771 0.6324188 -0.20009969 0.19647476 -0.5413107 -0.75377315 0.0033096427 -0.93260366 -0.17420563 0.34098402
19 -0.16912201 0.65399843 -0.20375681 0.269443 -0.5397212 -0.77252287 0.0071945125 -0.8689266 -0.22028582 0.28159323
43 -0.17570984 0.5694289 -0.1601198 0.23493688 -0.49074647 -0.83295494 0.03160389 -0.90915877 -0.21168026 0.28446543
45 -0.18252864 0.6147736 -0.20464197 0.2900526 -0.46717477 -0.82924366 0.024231907 -0.8632658 -0.15907036 0.3433218
98 -0.0876593 0.6426712 -0.13371912 0.20626241 -0.50668305 -0.7571561 0.07596704 -0.9311194 -0.2393001 0.31407872
21 -0.095388 0.61181915 -0.15600857 0.30748045 -0.5158385 -0.8205162 0.05497564 -0.8748094 -0.22282673 0.2816611
14 -0.0966913 0.6528801 -0.21986885 0.30225822 -0.5414216 -0.7870728 -0.017064862 -0.8524273 -0.18673481 0.28636664
32 -0.09182384 0.6180739 -0.15014054 0.2707307 -0.54744655 -0.7578153 0.03339656 -0.900826 -0.19446059 0.37101418
48 -0.082086384 0.6154052 -0.14445761 0.2723139 -0.46554863 -0.80062 0.010878419 -0.89930135 -0.19772659 0.32997334
54 -0.11424439 0.5723267 -0.21315615 0.31107998 -0.5126631 -0.7761444 0.052922644 -0.90010345 -0.16692716 0.35692272
4 -0.11525776 0.57373387 -0.1563649 0.29461524 -0.50996083 -0.81349736 -0.00032950603 -0.91593826 -0.2257517 0.30145562
47 -0.12500575 0.6119431 -0.19841442 0.284599 -0.54087114 -0.75733954 0.03433322 -0.8955164 -0.19289833 0.3718359
82 -0.17815326 0.6366737 -0.19075622 0.2293306 -0.53584 -0.7751599 -0.0058615566 -0.8947492 -0.24542534 0.29174495
76 -0.1212805 0.5922508 -0.1907019 0.30674228 -0.5521165 -0.8106327 0.041470956 -0.83295834 -0.1911543 0.36573437
18 -0.15163565 0.6660516 -0.22930332 0.24727115 -0.4995311 -0.7888781 -0.0040413924 -0.88817036 -0.2100349 0.2843571
36 -0.17715655 0.605001 -0.21196571 0.3124696 -0.46103776 -0.83456314 -0.027655162 -0.84102035 -0.23580213 0.33848673
2 -0.14631462 0.59845597 -0.12045201 0.23764852 -0.4883933 -0.79155076 -0.03049333 -0.9393726 -0.22438015 0.30523664
50 -0.13042054 0.59819233 -0.16395713 0.3119826 -0.5034644 -0.78283274 0.007401573 -0.88098025 -0.21879233 0.38585672
51 -0.1512147 0.59486073 -0.17056374 0.23202364 -0.49286678 -0.81807053 0.035288505 -0.8942672 -0.18067771 0.36599237
75 -0.15942392 0.62493587 -0.2133102 0.23105323 -0.48241547 -0.79172087 0.019677661 -0.88591594 -0.25140983 0.29249117
61 -0.15767062 0.6097846 -0.1988938 0.2436239 -0.52596974 -0.82525426 -0.012051196 -0.8466981 -0.20258239 0.35569093
29 -0.14127478 0.6232668 -0.1789199 0.21889117 -0.5515312 -0.7805574 0.021426955 -0.89449394 -0.21404085 0.31670275
24 -0.13980341 0.641833 -0.1810088 0.29351532 -0.45961463 -0.81776327 0.05505756 -0.8791474 -0.22560441 0.31396547
79 -0.15981871 0.6430737 -0.20697081 0.29220158 -0.5320431 -0.74430907 -0.023087908 -0.87797225 -0.2219707 0.3235355
96 -0.12878771 0.5412691 -0.22039281 0.27306107 -0.49435347 -0.7729631 0.012521495 -0.9409043 -0.25577447 0.36346674
67 -0.09307563 0.57104164 -0.1283538 0.30244803 -0.49726716 -0.81432086 -0.028309176 -0.8990464 -0.1601105 0.32747155
65 -0.12814969 0.5531644 -0.21878017 0.3001802 -0.5645405 -0.80967015 0.038683865 -0.8677635 -0.18419431 0.27658996
1 -0.10488516 0.62530535 -0.18297878 0.25324515 -0.5184768 -0.8245358 0.04280808 -0.87774825 -0.24756713 0.2816272
13 -0.10254632 0.639167 -0.18852928 0.23097263 -0.5170246 -0.7800923 -0.0029253366 -0.8823323 -0.22545257 0.31754157
25 -0.10956176 0.6240263 -0.13008419 0.20549674 -0.53589034 -0.7901109 -0.029384373 -0.9259325 -0.15905936 0.3092654
58 -0.14074437 0.5410774 -0.17204416 0.26989412 -0.5111319 -0.7802601 -0.017380372 -0.91997135 -0.23504308 0.35834712
46 -0.1079828 0.59994817 -0.14491351 0.2933183 -0.52591187 -0.7794437 0.036626883 -0.91065323 -0.15505217 0.32281303
20 -0.17120083 0.61387503 -0.11584432 0.27309513 -0.43345836 -0.79279155 0.011989758 -0.88686216 -0.17944776 0.3718695
71 -0.13164759 0.6078428 -0.19156063 0.30975062 -0.52197635 -0.75913626 0.04170481 -0.92057556 -0.1418793 0.35180745
41 -0.13150193 0.6036419 -0.20349726 0.26383507 -0.5308025 -0.76855254 0.0356656 -0.8993369 -0.14863767 0.34393942
10 -0.16729277 0.6349959 -0.15695748 0.22226164 -0.5325818 -0.81651026 -0.004972793 -0.8778849 -0.16597116 0.31042975
91 -0.13052039 0.6110128 -0.19933371 0.24546215 -0.49404573 -0.78206104 -0.002319023 -0.9231339 -0.23066597 0.30550116
44 -0.17065233 0.5498279 -0.16623938 0.26292408 -0.49228436 -0.7958904 -0.044816665 -0.8979799 -0.2395307 0.37190756
85 -0.14853856 0.5996081 -0.13182242 0.32093266 -0.47539815 -0.78159547 0.06516228 -0.8910927 -0.20901196 0.36841953
55 -0.09813285 0.62367505 -0.15194169 0.30332944 -0.53468376 -0.7590642 0.010179771 -0.92031825 -0.17159437 0.3594524
86 -0.14146596 0.5640122 -0.19548357 0.2206113 -0.4661319 -0.8002009 -0.008442773 -0.951181 -0.25156692 0.29856807
63 -0.1287664 0.6299381 -0.19954924 0.27656996 -0.5141786 -0.7707421 -0.029013239 -0.8842745 -0.23187846 0.34095883
30 -0.16086487 0.6034781 -0.21724616 0.2812526 -0.4579448 -0.79292357 0.019620372 -0.91712016 -0.16812553 0.3224926
60 -0.14852037 0.6107649 -0.11611105 0.24467771 -0.5567893 -0.75028896 0.037864275 -0.8943998 -0.202186 0.356004
53 -0.09325683 0.6173347 -0.11635187 0.26104027 -0.4639408 -0.7973083 0.01631658 -0.93461293 -0.19144095 0.29988772
49 -0.16658017 0.6068595 -0.14540394 0.24959427 -0.4505676 -0.79457766 0.051114034 -0.9217566 -0.24878 0.3343497
84 -0.11451097 0.62690604 -0.19942123 0.26410586 -0.47961095 -0.77503604 0.042060427 -0.89970076 -0.1749518 0.3515317
3 -0.15243132 0.5759612 -0.19132735 0.27199578 -0.4698899 -0.8093788 -0.0020466282 -0.92007416 -0.22608805 0.28320512
57 -0.14859807 0.6190566 -0.14070699 0.22750105 -0.5474464 -0.81396246 0.07354444 -0.8716375 -0.17414011 0.35516757
100 -0.145775 0.65169334 -0.12208413 0.25239837 -0.49266863 -0.8214321 0.00067514816 -0.86484057 -0.1959494 0.35447785
33 -0.19671236 0.5895114 -0.22289029 0.20946081 -0.53072804 -0.8253288 -0.018926317 -0.85120624 -0.22653891 0.37352154
27 -0.13985299 0.5968151 -0.17914705 0.2929825 -0.48261493 -0.74883604 0.035809416 -0.9204149 -0.22010711 0.3546801
88 -0.08609057 0.5256921 -0.23609146 0.27047664 -0.5319098 -0.8228325 -0.026453862 -0.92651314 -0.19172613 0.33780894
40 -0.17453344 0.66850924 -0.15611361 0.2520218 -0.5118181 -0.7590507 0.03941328 -0.8887129 -0.20092006 0.28526056
68 -0.11755918 0.65887344 -0.14563896 0.2844086 -0.5161483 -0.81750757 -0.00054590835 -0.8533645 -0.15202624 0.3459927
70 -0.11417172 0.55973524 -0.19319744 0.2827272 -0.5188069 -0.801456 -0.025017546 -0.9056277 -0.17263132 0.33887544
77 -0.14378619 0.6053473 -0.22295275 0.23266941 -0.49243712 -0.7981602 0.030394964 -0.8422694 -0.24970475 0.3545812
62 -0.105675526 0.56326234 -0.22045179 0.21068756 -0.45984378 -0.79821676 -0.02829075 -0.94143224 -0.24827866 0.31429052
99 -0.09656947 0.65429634 -0.16134284 0.25300142 -0.51856893 -0.777398 0.0448017 -0.8984481 -0.2006904 0.27998364
11 -0.14051802 0.6772292 -0.20078819 0.28104573 -0.5015499 -0.7804272 -0.01757317 -0.87940717 -0.18728961 0.28766286
92 -0.11019696 0.628603 -0.17678653 0.25999826 -0.51990896 -0.78313136 0.064102665 -0.89765894 -0.2038116 0.31418473
16 -0.07494063 0.6200483 -0.21458632 0.29341254 -0.51413727 -0.77819854 0.04983913 -0.8788033 -0.20343313 0.2936763
